[2.785343170734389, -0.13394349456846802, -2.4379038623333167, -0.7964291932133956, -2.247596296570709, 1.1098196266503295, -0.7049714068178073, 2.6420771633665616, -2.6920075487623683, 0.42222811971733265, -3.044071311215281, -2.704579792088787, 2.6134666951908816, -1.5655204095450004, 1.9279874310420198, -2.4984002999989166, -1.0662782393323007, -2.3855915529362575, -1.4520280052711143, -2.6120463213136946, -2.750703296540856, 2.8507375359316267, 0.43821202301768397, -2.275672796758334  
[0.6145421564315139, 1.4507768233942755, -2.66258407551704, 1.62965594203963, 0.27905066092807107, -0.872303140302405, 1.1298153800847937, -1.117089867254292, -3.0922906715781138, 1.530506453865207, -2.0187730314285233, -2.1303959596850253, 1.5141725724967556, -2.591944947319886, -2.0649102212116217, -1.9045167869657702, -0.4486777291005066, 0.480148182176725, -2.28111205235881, -2.555088684408728, 1.3332759883848395, -0.43359500621875163, -2.4174233551594515, -2.757354889849523
[-0.07842703832304594, -3.477107363933576, -2.161488527676784, -1.72, 0.73, -1.44, 0.31, 1.82, 0.25, -1.68, 1.56, 0.39
[2.5982275216082367